digraph Tree {
node [shape=box, style="filled", color="black"] ;
0 [label="x <= 0.119\ngini = 0.5\nsamples = 160\nvalue = [79, 81]", fillcolor="#399de506"] ;
1 [label="y <= -1.533\ngini = 0.235\nsamples = 81\nvalue = [70, 11]", fillcolor="#e58139d7"] ;
0 -> 1 [labeldistance=2.5, labelangle=45, headlabel="True"] ;
2 [label="gini = 0.198\nsamples = 9\nvalue = [1, 8]", fillcolor="#399de5df"] ;
1 -> 2 ;
3 [label="gini = 0.08\nsamples = 72\nvalue = [69, 3]", fillcolor="#e58139f4"] ;
1 -> 3 ;
4 [label="x <= 0.551\ngini = 0.202\nsamples = 79\nvalue = [9, 70]", fillcolor="#399de5de"] ;
0 -> 4 [labeldistance=2.5, labelangle=-45, headlabel="False"] ;
5 [label="gini = 0.457\nsamples = 17\nvalue = [6, 11]", fillcolor="#399de574"] ;
4 -> 5 ;
6 [label="gini = 0.092\nsamples = 62\nvalue = [3, 59]", fillcolor="#399de5f2"] ;
4 -> 6 ;
}