digraph Tree {
node [shape=box, style="filled", color="black"] ;
0 [label="x <= 0.148\ngini = 0.5\nsamples = 160\nvalue = [79, 81]", fillcolor="#399de506"] ;
1 [label="y <= -0.695\ngini = 0.214\nsamples = 82\nvalue = [72, 10]", fillcolor="#e58139dc"] ;
0 -> 1 [labeldistance=2.5, labelangle=45, headlabel="True"] ;
2 [label="gini = 0.0\nsamples = 7\nvalue = [0, 7]", fillcolor="#399de5ff"] ;
1 -> 2 ;
3 [label="gini = 0.077\nsamples = 75\nvalue = [72, 3]", fillcolor="#e58139f4"] ;
1 -> 3 ;
4 [label="y <= 1.019\ngini = 0.163\nsamples = 78\nvalue = [7, 71]", fillcolor="#399de5e6"] ;
0 -> 4 [labeldistance=2.5, labelangle=-45, headlabel="False"] ;
5 [label="gini = 0.101\nsamples = 75\nvalue = [4, 71]", fillcolor="#399de5f1"] ;
4 -> 5 ;
6 [label="gini = 0.0\nsamples = 3\nvalue = [3, 0]", fillcolor="#e58139ff"] ;
4 -> 6 ;
}